CC 0.197820 -0.555575 -0.409504 -0.104012 -0.291953 -0.051383 0.206539 -0.181986 -0.037009 -0.654641 -0.187222 0.008218 0.037658 0.552273 0.047929 0.127906 0.002482 0.178506 -0.086977 0.132345 0.181147 0.291358 -0.200000 0.267617 0.040700 0.155696 -0.138069 0.103021 0.078441 0.136188 -0.019426 -0.106845 -0.167746 0.396944 0.069238 -0.126699 0.182610 0.147507 0.017780 0.021190 0.316455 0.584018 -0.035071 0.288995 -0.147206 -0.075921 -0.170618 0.243062 -0.161229 -0.019526 -0.485204 0.057425 -0.047336 0.239330 -0.433332 -0.465733 -0.238576 0.392744 0.415430 -0.082533 -0.038802 0.281753 -0.078006 0.155462 0.149105 -0.024924 0.295723 -0.255525 -0.407510 0.029126 0.239291 0.075124 0.215005 -0.031648 0.041867 -0.212371 -0.297451 -0.053917 -0.013278 -0.098903 0.556496 -0.188504 -0.554187 -0.174080 0.155138 -0.340337 -0.189220 -0.043363 0.144086 -0.259532 -0.360173 -0.433410 0.064464 0.252983 0.315581 -0.333678 0.186499 -0.264577 0.124216 0.097895
CG 0.203657 -0.040147 -0.117271 -0.144045 -0.127925 -0.056516 0.226252 0.021814 0.021801 -0.265973 -0.066242 0.052349 -0.179254 0.379612 0.095056 0.235203 -0.020842 -0.054984 0.050317 -0.175076 -0.122362 0.065703 -0.006018 0.034645 -0.076663 0.039713 -0.112370 -0.039909 0.078238 -0.087415 0.049648 0.040340 -0.037836 0.389946 -0.003597 -0.159324 0.004504 -0.141026 0.112122 -0.058806 -0.009893 0.250077 0.095299 0.073217 -0.040196 -0.059908 -0.087281 0.064084 -0.105185 0.029125 -0.011448 0.135840 0.045950 0.052396 0.099437 -0.096461 -0.100610 0.154438 0.322920 0.034490 0.048803 -0.085994 -0.006515 0.223383 0.088532 0.061390 0.047869 -0.035366 -0.263943 0.216627 0.318113 -0.058998 -0.085046 0.093839 0.054325 -0.102544 -0.039822 0.113424 0.100754 0.002031 0.085309 0.092596 -0.150626 -0.088353 0.243186 0.055061 -0.110715 -0.070862 -0.055553 -0.059048 -0.030824 -0.112335 -0.003748 0.106907 0.255338 -0.129900 0.067282 -0.136688 -0.029614 -0.109173
GC 0.172329 0.009193 -0.106950 -0.175367 -0.094311 -0.072882 0.193549 -0.022537 0.040894 -0.246804 -0.069460 0.037094 -0.191306 0.370315 0.089581 0.239033 -0.018944 -0.034675 0.066668 -0.176666 -0.133579 0.105280 -0.023097 0.024503 -0.078771 0.080429 -0.106651 -0.039565 0.057774 -0.078837 0.025499 0.048935 -0.044439 0.381617 0.003564 -0.183340 0.004955 -0.112371 0.112935 -0.077831 -0.018889 0.246468 0.108784 0.109681 -0.034464 -0.046615 -0.088527 0.087993 -0.107530 0.068581 -0.011334 0.159317 0.031964 0.065250 0.075345 -0.114176 -0.127235 0.158857 0.314076 0.023003 0.054842 -0.111963 -0.017546 0.195181 0.116737 0.035269 0.038011 -0.066164 -0.295844 0.239070 0.310122 -0.100792 -0.076632 0.099807 0.032117 -0.121648 -0.018459 0.100539 0.108197 -0.016362 0.080581 0.079300 -0.155267 -0.077190 0.228762 0.061447 -0.109938 -0.073719 -0.012456 -0.051154 -0.002405 -0.095308 -0.004862 0.157102 0.237031 -0.106443 0.056306 -0.146723 -0.021440 -0.116846
GG 0.227305 0.389258 0.094176 -0.218611 -0.007607 -0.095347 0.223758 0.140324 0.109622 0.021958 0.022203 0.085614 -0.387982 0.303108 0.133455 0.353633 -0.049521 -0.215918 0.158228 -0.448070 -0.386041 -0.067448 0.139211 -0.153792 -0.179896 0.006935 -0.104584 -0.142573 0.076694 -0.255004 0.089176 0.170828 0.059583 0.434303 -0.055138 -0.223792 -0.136479 -0.375503 0.207001 -0.146870 -0.283322 0.026306 0.214438 -0.068641 0.032244 -0.042616 -0.054364 -0.038377 -0.071353 0.089157 0.339910 0.213927 0.103580 -0.083111 0.510665 0.166003 -0.022654 -0.002746 0.294980 0.115848 0.157886 -0.393159 0.028384 0.269119 0.080759 0.097370 -0.156849 0.117841 -0.220273 0.407769 0.409976 -0.204245 -0.291815 0.208597 0.058069 -0.057142 0.179251 0.260492 0.226968 0.029826 -0.267452 0.319453 0.137789 -0.022077 0.347750 0.382528 -0.065733 -0.088726 -0.219360 0.101272 0.256366 0.153474 -0.069155 0.032489 0.220713 0.016600 -0.035112 -0.063779 -0.162584 -0.258117
CT 0.000614 -0.219230 0.007162 0.050145 -0.162956 0.009138 -0.024354 0.038560 0.045208 -0.221122 -0.153802 0.162800 0.271526 0.149488 0.120545 -0.035316 0.082232 0.154718 0.054510 0.053601 0.279262 0.335706 -0.021148 0.092746 -0.031018 0.119543 -0.015161 0.060994 -0.029994 0.059999 0.120155 -0.002776 0.096237 -0.029199 -0.044468 0.122042 0.098342 0.142044 -0.010679 0.343928 -0.018825 0.146106 0.003687 0.191116 -0.002322 0.009736 -0.062380 0.103947 -0.054862 -0.085316 -0.130692 -0.122373 -0.133894 0.141306 -0.357473 0.017001 -0.052146 0.068358 -0.201129 -0.050707 0.082704 0.145977 -0.145818 -0.065547 0.073264 -0.057243 0.108367 0.006832 -0.235781 -0.273621 -0.175414 -0.033348 0.255346 -0.066880 -0.011677 -0.183942 -0.067521 -0.109692 0.048441 -0.119308 0.141524 -0.191262 -0.147092 0.067350 -0.038481 -0.190639 -0.064882 -0.040408 0.097249 -0.087335 -0.006471 0.068693 -0.060079 0.080005 0.077617 -0.076256 0.176093 0.143400 -0.027711 0.107022
TC 0.051159 -0.262452 0.007082 0.088292 -0.220863 -0.005439 -0.018118 0.065155 0.084424 -0.234123 -0.149904 0.180792 0.294474 0.172509 0.095944 -0.082994 0.076315 0.141851 0.041497 0.039304 0.300255 0.288617 0.021786 0.066136 -0.032223 0.074040 -0.025178 0.067264 -0.015572 0.059238 0.120284 -0.003931 0.089965 0.001921 -0.074726 0.134911 0.120598 0.089969 -0.017942 0.366081 -0.038492 0.151068 -0.033973 0.166861 0.010469 -0.001262 -0.081888 0.080526 -0.028354 -0.102815 -0.146589 -0.137417 -0.130558 0.128125 -0.313840 0.019141 -0.019603 0.055937 -0.162106 -0.042259 0.110382 0.152635 -0.130356 -0.049527 0.060939 -0.066220 0.116875 0.030682 -0.211924 -0.263890 -0.172434 0.015659 0.246163 -0.070003 0.012535 -0.165883 -0.058668 -0.111146 0.044080 -0.127638 0.163343 -0.158640 -0.146780 0.056875 -0.021549 -0.207282 -0.067200 -0.033407 0.032970 -0.107819 -0.049243 0.030772 -0.036963 0.011962 0.063744 -0.125367 0.160286 0.144965 -0.035471 0.124597
GT 0.082107 0.159995 0.194266 0.026096 -0.089076 -0.022993 0.014385 0.197983 0.133509 0.039672 -0.061009 0.193329 0.052770 0.085246 0.125014 0.058868 0.048411 -0.055125 0.138776 -0.220200 0.015857 0.122747 0.158715 -0.098403 -0.126681 0.016862 -0.026544 -0.038867 -0.016124 -0.121086 0.173237 0.119895 0.190237 0.058058 -0.109572 0.052069 -0.031361 -0.145508 0.082357 0.251901 -0.306228 -0.084474 0.081205 -0.006908 0.075744 0.006627 -0.038641 -0.040265 -0.012292 -0.056849 0.223994 -0.055287 -0.039379 -0.016861 0.135965 0.287784 0.053850 -0.096416 -0.178891 0.058652 0.191447 -0.145541 -0.066600 0.031584 0.033697 -0.000917 -0.082401 0.193944 -0.145077 -0.069356 -0.039416 -0.123827 0.012651 0.035614 0.025306 -0.093334 0.140942 0.049883 0.168727 -0.066302 -0.209318 0.074426 0.154611 0.121180 0.094385 0.136647 -0.006730 -0.055509 -0.146301 0.052754 0.227607 0.295185 -0.098369 -0.071024 0.044607 0.036667 0.073816 0.210624 -0.165006 -0.047939
TG 0.038181 0.201755 0.227629 -0.027309 -0.056637 -0.036627 -0.001919 0.175918 0.131103 0.075781 -0.035348 0.200669 0.051320 0.084104 0.155320 0.085015 0.041945 -0.018421 0.157430 -0.236750 -0.002589 0.157379 0.140809 -0.107881 -0.137924 0.056983 -0.004609 -0.056032 -0.005277 -0.115125 0.154000 0.125971 0.170371 0.038225 -0.107447 0.064714 -0.046841 -0.130039 0.080658 0.240138 -0.283928 -0.068307 0.121393 0.031410 0.071336 0.016663 -0.022326 -0.017746 -0.001635 -0.020831 0.221925 -0.037297 -0.066479 -0.015963 0.087778 0.270145 0.050275 -0.095229 -0.182229 0.033381 0.184837 -0.179859 -0.100638 -0.001247 0.052074 -0.009840 -0.099770 0.161192 -0.156185 -0.047082 -0.073572 -0.141183 0.015022 0.064195 0.003610 -0.121075 0.157682 0.048092 0.152563 -0.071346 -0.206736 0.065503 0.143710 0.108966 0.071984 0.139270 -0.028389 -0.050370 -0.082788 0.073080 0.255996 0.293688 -0.115432 -0.026849 0.041210 0.051945 0.045081 0.199682 -0.152539 -0.038688
TT -0.097010 -0.051407 0.328108 0.230782 -0.158144 0.042053 -0.231223 0.235772 0.166121 0.080188 -0.140276 0.326533 0.530928 -0.130079 0.157827 -0.231934 0.147583 0.161929 0.135895 0.001465 0.436087 0.371740 0.163179 -0.048282 -0.086333 0.072854 0.076640 0.055579 -0.104868 0.029066 0.247521 0.072815 0.314013 -0.355085 -0.162817 0.362913 0.069466 0.110777 -0.050037 0.677970 -0.301336 -0.173697 -0.019378 0.105726 0.114166 0.069669 -0.015093 -0.012101 0.059469 -0.182636 0.087563 -0.326784 -0.227959 0.062194 -0.324524 0.399159 0.129705 -0.190566 -0.686338 -0.033985 0.230730 0.096092 -0.209869 -0.258019 0.004386 -0.120179 -0.016603 0.241311 -0.094410 -0.563300 -0.552464 -0.060196 0.356017 -0.119079 -0.030395 -0.170280 0.111570 -0.176747 0.097132 -0.187438 -0.132122 -0.199339 0.148004 0.257866 -0.192777 -0.128197 0.029219 -0.017143 -0.007606 0.018845 0.223527 0.442354 -0.146770 -0.138213 -0.139225 0.058507 0.168106 0.490709 -0.157209 0.188704
AG -0.007053 0.236260 -0.005148 -0.048467 0.173620 -0.004905 0.005426 -0.052674 -0.038432 0.211238 0.120857 -0.154725 -0.257879 -0.151337 -0.111175 0.037612 -0.068265 -0.143387 -0.047460 -0.049027 -0.255648 -0.288909 0.014013 -0.084207 0.029479 -0.087168 0.010617 -0.053493 0.009248 -0.057824 -0.113879 0.022209 -0.075432 0.021098 0.052471 -0.135838 -0.094041 -0.120841 0.018793 -0.318564 0.003908 -0.162050 0.001909 -0.175287 0.001539 -0.001417 0.056377 -0.080401 0.034961 0.086857 0.140476 0.126274 0.126249 -0.113567 0.334901 -0.006752 0.037883 -0.060836 0.164750 0.062240 -0.067338 -0.148081 0.135334 0.054715 -0.046706 0.048322 -0.102496 -0.003276 0.191762 0.251821 0.173132 -0.001435 -0.229684 0.055967 0.002265 0.161769 0.075259 0.098371 -0.024511 0.101405 -0.155580 0.173300 0.150936 -0.041903 0.039092 0.187957 0.064654 0.033837 -0.084777 0.079051 0.030885 -0.033009 0.052957 -0.038572 -0.079836 0.092109 -0.147103 -0.116699 0.020385 -0.118385
GA -0.014933 0.226208 0.015102 -0.076357 0.170842 -0.001939 0.028565 -0.032260 -0.060131 0.225262 0.152624 -0.131693 -0.253525 -0.139265 -0.078185 0.065065 -0.076998 -0.131314 -0.042086 -0.064537 -0.271462 -0.297270 0.010130 -0.083925 0.016532 -0.092601 0.029014 -0.073873 0.039047 -0.058478 -0.107928 0.014512 -0.092787 0.013798 0.049011 -0.098889 -0.114617 -0.129284 0.011703 -0.314656 0.037253 -0.140690 0.030647 -0.175133 -0.005557 -0.004313 0.078314 -0.084624 0.048660 0.084684 0.137896 0.122275 0.111169 -0.134889 0.312104 -0.007950 0.058938 -0.063222 0.172853 0.042566 -0.081452 -0.161344 0.112731 0.048019 -0.058735 0.068437 -0.106021 -0.010279 0.211797 0.258278 0.152427 0.014120 -0.233027 0.080426 -0.001852 0.148842 0.076922 0.107573 -0.046350 0.111818 -0.150136 0.173975 0.134500 -0.058844 0.032406 0.186325 0.037179 0.040055 -0.068936 0.085278 0.042119 -0.047686 0.038351 -0.038477 -0.062355 0.083654 -0.156552 -0.118096 0.025743 -0.107328
AC -0.059211 -0.174409 -0.205803 -0.008123 0.082451 0.037642 0.017074 -0.173634 -0.155707 -0.057789 0.045997 -0.187173 -0.066799 -0.078004 -0.121386 -0.041475 -0.044175 0.026954 -0.149165 0.217087 -0.015955 -0.140762 -0.152706 0.113191 0.126884 -0.034187 0.012818 0.039629 0.019771 0.107349 -0.150018 -0.111610 -0.172958 -0.043882 0.112198 -0.057836 0.023251 0.130082 -0.073582 -0.240962 0.296854 0.066446 -0.084482 -0.028873 -0.078959 -0.012801 0.039654 0.030273 -0.007003 0.027991 -0.197726 0.049749 0.058761 0.012396 -0.096598 -0.260917 -0.044352 0.098794 0.177971 -0.034705 -0.191277 0.146182 0.080233 -0.002891 -0.040428 0.028250 0.091261 -0.164702 0.144899 0.054476 0.071785 0.124931 -0.017663 -0.045089 -0.010657 0.101216 -0.145619 -0.039796 -0.154046 0.076737 0.183379 -0.065364 -0.147145 -0.104149 -0.073092 -0.127761 0.004785 0.053737 0.103045 -0.068834 -0.219212 -0.280939 0.097473 0.066297 -0.022846 -0.037423 -0.040452 -0.187784 0.147582 0.025784
CA -0.032900 -0.164651 -0.192443 -0.002923 0.055487 0.006735 -0.008532 -0.191756 -0.094616 -0.055871 0.045755 -0.183254 -0.055633 -0.060189 -0.149312 -0.083733 -0.048629 0.036222 -0.147615 0.201238 -0.003726 -0.148370 -0.126262 0.078945 0.124994 -0.034071 0.005612 0.045422 0.017099 0.112721 -0.175829 -0.101410 -0.186294 -0.012478 0.086429 -0.074326 0.048613 0.101116 -0.072854 -0.242308 0.271103 0.078967 -0.108427 -0.010757 -0.067453 -0.018466 0.016033 0.034578 0.016109 0.055639 -0.218914 0.059370 0.050095 0.019613 -0.083978 -0.284301 -0.042347 0.092740 0.211934 -0.038951 -0.157374 0.133278 0.081675 -0.010360 -0.025638 -0.010501 0.089392 -0.173822 0.133663 0.089712 0.071800 0.134627 -0.021314 -0.040317 -0.009065 0.101326 -0.123039 -0.048385 -0.154164 0.056319 0.210382 -0.040973 -0.143485 -0.118593 -0.066017 -0.133589 0.007490 0.050297 0.089185 -0.070189 -0.239103 -0.299295 0.114190 0.039518 -0.052625 -0.064517 -0.071755 -0.206320 0.154173 0.040429
TA -0.179871 0.031268 0.106686 0.159463 0.120464 0.075553 -0.188067 0.002356 -0.044441 0.235820 0.046441 -0.045955 0.166650 -0.366881 -0.083581 -0.210736 0.030144 0.024500 -0.052598 0.169535 0.120119 -0.075653 0.009975 -0.019512 0.074061 -0.055440 0.097235 0.036464 -0.076543 0.068610 -0.022830 -0.031649 0.054533 -0.365483 0.007768 0.147494 -0.009575 0.127908 -0.098811 0.067085 -0.000803 -0.257124 -0.094967 -0.097655 0.035738 0.048960 0.086685 -0.075745 0.082812 -0.047315 0.042625 -0.133725 -0.022001 -0.049695 -0.061338 0.119080 0.097207 -0.150017 -0.313422 -0.010675 -0.051939 0.087085 0.022092 -0.183364 -0.099983 -0.033565 -0.039058 0.059192 0.254996 -0.228184 -0.275335 0.058426 0.069406 -0.099451 -0.034776 0.111868 0.022202 -0.096566 -0.088979 0.019864 -0.105222 -0.082469 0.156881 0.095796 -0.221105 -0.042185 0.114676 0.063046 0.026140 0.054079 0.029428 0.120973 0.001153 -0.117837 -0.222427 0.132860 -0.042638 0.144458 0.016422 0.080836
AT -0.163542 0.029139 0.141618 0.139884 0.092926 0.048768 -0.198132 0.005028 -0.008729 0.263165 0.078232 -0.021985 0.184892 -0.347158 -0.079195 -0.231160 0.014678 0.050302 -0.047048 0.143349 0.120248 -0.090205 0.032219 -0.055469 0.061364 -0.062448 0.111327 0.025067 -0.051541 0.077082 -0.044832 -0.030139 0.025076 -0.357202 -0.020890 0.175519 -0.001468 0.095370 -0.111495 0.076529 0.006885 -0.233366 -0.092317 -0.079761 0.043585 0.048821 0.085029 -0.074659 0.122496 -0.032720 0.014076 -0.135059 -0.048588 -0.063241 -0.076670 0.099834 0.129894 -0.160091 -0.288036 -0.031347 -0.035477 0.061825 0.001797 -0.206111 -0.090881 -0.054969 -0.047367 0.046697 0.272679 -0.191841 -0.312894 0.085195 0.064703 -0.076800 -0.041907 0.099516 0.053725 -0.102836 -0.108125 0.004318 -0.076024 -0.060895 0.152188 0.068421 -0.223915 -0.057741 0.087733 0.070823 0.030069 0.050781 0.020841 0.087394 0.005045 -0.132989 -0.247468 0.100021 -0.074143 0.141979 0.025645 0.112319
AA -0.290416 0.071047 -0.121870 0.099689 0.411444 0.092367 -0.251376 -0.258722 -0.218903 0.507189 0.309862 -0.447825 -0.140832 -0.697330 -0.385150 -0.312211 -0.123019 -0.061216 -0.298716 0.384787 -0.172430 -0.632467 -0.112095 -0.014679 0.266956 -0.219512 0.175645 0.021176 -0.020891 0.162858 -0.378569 -0.170434 -0.263473 -0.468424 0.186524 -0.001462 -0.102149 0.118167 -0.193059 -0.592885 0.386221 -0.385609 -0.218248 -0.343175 -0.048070 0.042929 0.213928 -0.153188 0.192034 0.088689 -0.066528 0.037772 0.155078 -0.214200 0.182789 -0.195521 0.153553 -0.161417 0.066585 -0.036835 -0.341169 0.126182 0.254778 -0.201060 -0.248486 0.013945 -0.079473 -0.147106 0.748084 0.117754 -0.118665 0.266441 -0.180728 -0.077742 -0.070126 0.444715 -0.035008 -0.048158 -0.338470 0.192238 -0.049600 0.066252 0.165658 -0.104074 -0.311756 0.002097 0.200996 0.204705 0.042823 0.098229 -0.200591 -0.279986 0.186495 -0.169753 -0.441831 0.156346 -0.352542 -0.240348 0.254333 0.053066
<unk> 0.008015 -0.007109 -0.002323 -0.000679 -0.006390 -0.002236 -0.000386 -0.001916 0.004670 -0.004753 -0.002581 0.004674 0.003563 0.007901 0.000793 -0.001701 -0.000413 0.003746 -0.004271 -0.001726 0.005574 -0.000160 0.003044 0.000727 -0.000534 0.002352 -0.000891 0.000644 0.003469 0.002459 -0.002112 0.003544 -0.002559 0.006510 -0.000716 -0.000115 0.000988 -0.005727 0.000931 0.003246 0.003560 0.002759 -0.001844 -0.001199 -0.002463 -0.001245 -0.002819 0.004210 0.000444 -0.001080 -0.003748 0.000876 -0.002084 0.001818 -0.000548 -0.003354 0.003986 0.002583 0.008084 0.000512 0.006050 0.000317 -0.002395 -0.000041 0.003040 -0.001586 0.003591 0.000091 -0.004567 0.001710 0.001653 0.003156 0.006150 0.000715 0.001227 -0.003685 0.001998 -0.000554 0.001184 -0.005796 0.004302 0.003585 -0.006269 -0.000801 0.004001 -0.004775 -0.006005 0.002687 -0.007013 -0.005659 -0.001328 -0.005590 0.001547 0.000847 -0.000798 -0.009055 0.000823 -0.000325 0.001058 0.002136
